#include "mlp_weights.h"

// Diccionario de clases: {'1':0, '2':1, '3':2, '4':3, '5':4, 'A':5, 'B':6, 'C':7, 'D':8}
const char CLASS_MAP[NUM_CLASSES] = {'1', '2', 'B', '4', 'A', '5', '3', 'C', 'D'};


// Parámetros de escalado
// Parámetros de escalado
const float SCALER_MEAN[NUM_FEATURES] = {2.742709f, 2.727049f, 2.053750f, 2.049014f, 2.303281f, 2.297693f, 2.035939f, 2.037253f, 1.993966f, 1.988719f, 1.280886f, 1.281767f, 1.612640f, 1.606238f};
const float SCALER_STD[NUM_FEATURES]  = {0.087020f, 0.086559f, 0.276153f, 0.275248f, 0.283423f, 0.280822f, 0.250899f, 0.250590f, 0.530781f, 0.526115f, 0.814689f, 0.806778f, 0.130640f, 0.130149f};


// CAPA OCULTA 0
const float WEIGHTS_L0[L0_IN][L0_OUT] = {
    {-0.089825f, 0.449221f, 0.405736f, -0.411568f, -0.234824f, -0.911281f, -0.807042f, 0.428877f, -0.258595f, 0.042059f, -0.265110f, 0.629392f, -0.147981f, -0.906906f, -0.470212f, -0.632017f, 0.776421f, -0.009022f, 0.921401f, -0.388760f, 0.671949f, 0.764893f, -0.111095f, -0.312760f, -0.524786f, 0.091150f, 0.176395f, 0.534608f, 0.054926f, -0.389285f, 0.648084f, -0.175576f},
    {0.011368f, 0.252061f, 0.102784f, -0.526669f, -0.192635f, -1.031774f, -0.419857f, 0.481456f, -0.452433f, 0.021221f, -0.487420f, 0.820091f, -0.257885f, -0.957968f, -0.698607f, -0.093956f, 0.678183f, -0.103396f, 0.935398f, -0.397091f, 0.581108f, 0.914801f, 0.161257f, -0.190591f, -0.434684f, -0.198839f, -0.046076f, 0.623865f, 0.199760f, -0.532698f, 0.608440f, -0.017102f},
    {-0.117526f, -0.113620f, -1.019593f, -0.070417f, -0.903293f, 0.797589f, 0.273275f, -0.483469f, -0.461313f, 0.279966f, -0.257913f, 0.105877f, 0.433015f, -0.164796f, -0.534389f, -0.882007f, 0.770530f, -0.118959f, -0.314040f, 0.037410f, -0.461758f, -0.181953f, 0.329656f, 0.217172f, 0.858227f, 0.546064f, -0.524349f, -0.177380f, 0.482291f, -0.189592f, -0.526099f, -0.061951f},
    {0.239671f, -0.248862f, -0.965529f, -0.322759f, -0.921144f, 0.790442f, 0.108087f, -0.808371f, -0.342256f, -0.008390f, -0.258064f, 0.200462f, 0.231406f, -0.273332f, -0.720168f, -1.157872f, 0.910397f, -0.406999f, -0.425386f, 0.233168f, -0.770634f, -0.268529f, 0.515556f, 0.307434f, 0.950505f, 0.760490f, -0.607172f, -0.409442f, 0.431247f, -0.194973f, -0.554809f, 0.070160f},
    {-0.964826f, 0.073635f, -0.178772f, -0.270155f, -0.419906f, -0.338334f, -0.471750f, -0.246761f, -0.411810f, 0.507140f, 0.137094f, -0.183072f, 0.050921f, 0.205654f, -0.315054f, 0.065362f, -0.139390f, -0.447719f, 0.115404f, -0.381938f, -0.559753f, -0.542812f, 0.808451f, -0.260566f, -0.789006f, -0.226338f, 0.841329f, -0.376836f, -0.094989f, 0.327850f, -0.188400f, 0.405067f},
    {-0.936762f, 0.123134f, -0.244265f, -0.084664f, -0.435721f, -0.285604f, -0.597850f, -0.363498f, -0.497327f, 0.526688f, 0.159514f, -0.380544f, -0.129834f, 0.204841f, -0.367326f, 0.112483f, -0.114111f, -0.379374f, 0.157693f, -0.316840f, -0.594352f, -0.500110f, 0.994815f, -0.065278f, -0.726755f, -0.090872f, 0.861992f, -0.264144f, 0.003952f, 0.248287f, -0.211668f, 0.559932f},
    {-0.207675f, -0.002673f, -0.185152f, 0.003088f, -0.092313f, 0.436001f, 0.527999f, -0.111287f, 0.015895f, -1.215817f, -0.642033f, 0.258690f, -0.382121f, -0.714520f, -0.200937f, 0.054745f, -0.263557f, 0.113314f, 0.311126f, 0.390910f, -0.622371f, 0.874397f, 0.228803f, -0.361241f, 0.151481f, 0.105993f, 0.056792f, -0.048998f, 0.239278f, 0.121329f, -0.668384f, -0.030509f},
    {-0.491443f, -0.070631f, -0.017414f, 0.015846f, -0.024462f, 0.396802f, 0.816805f, -0.057814f, 0.002476f, -1.026083f, -0.701620f, 0.315409f, -0.426790f, -0.679952f, 0.026041f, 0.006815f, 0.038138f, 0.561324f, 0.535139f, 0.512113f, -0.726817f, 0.995452f, 0.117994f, -0.053971f, 0.392171f, 0.161825f, -0.027993f, -0.318162f, 0.165813f, -0.110957f, -0.663106f, 0.129079f},
    {0.448575f, 0.037609f, 0.222072f, -1.153914f, 0.244781f, 0.421578f, -0.735520f, -0.422692f, 0.525820f, 0.224705f, 0.959513f, -0.121436f, -0.192195f, 0.236641f, 0.538494f, -0.169312f, 0.451065f, 0.595572f, 0.305704f, -0.027007f, 0.251111f, -0.212104f, 0.047492f, 0.189569f, 0.073030f, -0.365767f, 0.230627f, -0.547744f, 0.811585f, -0.548219f, -0.579605f, 0.463413f},
    {0.240556f, -0.036513f, 0.041244f, -1.194712f, 0.329704f, 0.203392f, -0.808967f, -0.476548f, 0.524084f, 0.023458f, 0.935383f, -0.329115f, -0.298200f, 0.290894f, 0.410637f, -0.256628f, 0.442701f, 0.612398f, 0.232760f, -0.082712f, 0.178124f, -0.342533f, -0.010425f, -0.160855f, -0.214633f, -0.092063f, 0.364831f, -0.330133f, 0.801599f, -0.472745f, -0.719551f, 0.380809f},
    {-0.000255f, -0.472557f, 0.560731f, -0.027918f, 0.008945f, -0.072449f, -0.061362f, -0.512206f, 0.281109f, 0.281487f, -0.104857f, 0.404245f, -0.161350f, -0.490908f, 0.164763f, -0.299440f, 0.301433f, 0.498435f, -0.027200f, -0.896257f, -0.170611f, -0.205791f, -1.084488f, 0.062427f, -0.203014f, -0.149787f, 0.175569f, -0.202038f, -0.230053f, 0.240957f, 0.477634f, 1.185825f},
    {0.066027f, -0.668683f, 0.313784f, 0.048649f, -0.348266f, -0.145605f, 0.046709f, -0.525183f, 0.284862f, 0.391617f, -0.046318f, 0.373283f, 0.252685f, -0.399763f, 0.601728f, 0.074400f, 0.084536f, 0.193022f, -0.196681f, -0.913135f, -0.362514f, -0.109422f, -1.119947f, -0.009298f, -0.080492f, -0.354557f, 0.230927f, -0.117259f, -0.344739f, 0.274169f, 0.522159f, 1.201839f},
    {-0.420575f, 0.880944f, 0.110773f, -0.165385f, 0.248299f, 0.490051f, -0.618049f, -0.229141f, -0.715524f, -0.159827f, 0.587516f, -0.741009f, 1.411461f, -0.483113f, -0.208807f, -0.446443f, -0.983734f, -0.246535f, -0.645583f, 0.051868f, -0.503519f, 0.520513f, -0.362503f, -1.560882f, 0.201863f, -0.232701f, -0.105226f, 0.889312f, 0.626421f, 0.863384f, 0.522201f, 0.945469f},
    {-0.622439f, 0.853089f, 0.168369f, -0.273260f, 0.406181f, 0.500382f, -0.654517f, -0.263311f, -0.745551f, -0.180276f, 0.642360f, -0.771294f, 1.699948f, -0.562794f, -0.204914f, -0.257823f, -1.125114f, -0.331309f, -0.764160f, 0.120922f, -0.483737f, 0.492463f, -0.397974f, -1.731140f, 0.253583f, -0.206192f, -0.100315f, 1.033542f, 0.692473f, 1.151941f, 0.601979f, 0.942614f}
};
const float BIAS_L0[L0_OUT] = {-0.196572f, -1.132245f, 0.328273f, -0.085591f, -0.104241f, 0.537287f, 0.154704f, 0.414314f, -0.739704f, 0.186093f, 0.203634f, -0.935465f, -1.406240f, -0.459961f, 0.739696f, 0.581070f, 0.824214f, 0.723821f, 0.924167f, 0.628600f, 0.507264f, 0.326497f, -0.823958f, 0.362933f, -0.075160f, 0.336838f, 0.623194f, 1.246186f, 0.460854f, 0.422075f, -0.432100f, -0.566600f};

// --- CAPA OCULTA 1 ---
const float WEIGHTS_L1[L1_IN][L1_OUT] = {
    {0.226186f, -0.401022f, 0.000000f, 0.543313f, -0.061866f, 0.667483f, -0.436726f, -0.285880f, -0.321289f, 0.195332f, 0.314301f, 0.297301f, 0.450968f, -1.002045f, 0.059747f, 0.246468f},
    {-0.398218f, 0.149795f, 0.000000f, -0.528211f, -0.611129f, 0.788509f, 0.383691f, 0.919511f, 0.413582f, -0.707774f, -0.205661f, -0.214928f, -0.523326f, 0.938561f, 0.458849f, 0.353569f},
    {0.056962f, 0.172300f, -0.000000f, -0.210189f, 0.034764f, 0.593558f, 0.230977f, -0.667932f, 0.319850f, 0.126701f, 0.782369f, 0.758195f, 0.040776f, 0.028690f, -0.096540f, -0.734999f},
    {-0.665483f, 0.510857f, 0.000000f, 0.187469f, 0.575831f, -0.222854f, 0.024937f, 0.323602f, 0.355284f, -0.456539f, -0.142615f, -0.529492f, -0.640076f, 0.380062f, -0.829826f, 1.226652f},
    {0.090434f, -0.306386f, -0.000000f, 0.593200f, -0.105293f, 0.370911f, -0.141482f, -0.013364f, 0.333861f, 0.493168f, 0.750271f, -0.466958f, -0.435001f, -0.219609f, 0.256821f, 0.215206f},
    {0.171267f, -0.954851f, -0.000000f, 0.194361f, -0.221353f, 0.552644f, 0.086891f, 0.245426f, 0.391682f, -0.644611f, -0.099486f, -0.080513f, 0.282064f, -0.475979f, 0.870041f, 0.800191f},
    {0.093394f, 0.547624f, 0.000000f, -0.170668f, -0.021009f, 0.219086f, -0.886893f, -0.635016f, 0.292490f, 0.178434f, -0.830449f, -0.390422f, 0.740766f, -0.021243f, -1.150696f, 0.170531f},
    {-0.031962f, -0.428558f, 0.000000f, 0.412981f, 0.583563f, 0.014632f, 0.334538f, 0.139982f, 0.158689f, 0.038430f, -0.236392f, 0.008586f, -0.912367f, 0.894513f, 0.234392f, 0.283951f},
    {0.508924f, 0.339385f, 0.000000f, 0.791970f, -0.251169f, 0.212903f, -0.213091f, 0.477807f, -1.079362f, 0.018134f, 0.264088f, -0.023809f, 0.286527f, -0.605409f, 0.085031f, 0.389449f},
    {0.264802f, -0.401771f, 0.000000f, 0.017665f, -0.887344f, -0.326100f, 0.889260f, -0.163255f, 0.207083f, 0.638192f, -0.376279f, 0.136633f, -0.489256f, -0.001378f, -0.022090f, 0.120096f},
    {-0.268807f, 0.073884f, -0.000000f, -0.734711f, -0.856066f, 0.329621f, -0.223979f, 0.072671f, -0.993040f, 0.718376f, -0.145518f, -0.266590f, 0.733138f, 0.154532f, 0.284508f, -0.410740f},
    {-0.688258f, -0.131915f, -0.000000f, -0.524546f, 0.455164f, 0.439578f, 0.082103f, 0.566932f, 0.475335f, -0.758700f, -0.261309f, -0.824474f, -0.129140f, 0.066673f, 0.213556f, 0.342086f},
    {-0.158126f, -0.375196f, 0.000000f, 0.885649f, -1.137604f, -0.360891f, -0.114088f, -0.617350f, 1.181357f, 0.442208f, -0.130834f, -1.330106f, 0.949178f, 0.302295f, 0.235697f, -0.508823f},
    {-0.290284f, -0.315741f, -0.000001f, 0.170309f, 0.397960f, -0.239122f, -0.588848f, 0.579898f, -0.663905f, 0.041502f, 0.278654f, 0.301970f, -1.050124f, -0.670399f, -0.181205f, -0.386291f},
    {-0.134082f, 0.696560f, 0.000000f, 0.464232f, 0.162848f, 0.261870f, 0.056473f, 0.627440f, -0.208333f, -0.103154f, 0.324274f, 0.654361f, 0.741555f, 0.532585f, 0.098346f, 0.193996f},
    {0.081835f, 0.040846f, 0.000000f, 0.600005f, 0.570256f, -0.250747f, -0.190431f, 0.615896f, -0.087487f, -0.538317f, 0.057326f, 0.058504f, 0.102321f, 0.790762f, 0.064182f, 0.666204f},
    {-0.976236f, 0.522090f, -0.000000f, -0.173116f, -0.062267f, -0.165568f, -0.246329f, -0.792243f, -0.077399f, 0.984184f, -0.309423f, -0.092154f, 0.657990f, 0.299779f, -0.083806f, 0.569367f},
    {0.112005f, -0.388683f, 0.000000f, 0.340911f, 0.353126f, 0.265889f, 0.581913f, 0.499831f, -0.616045f, 0.274607f, 0.022256f, -0.290484f, -0.234638f, 0.306570f, 0.871804f, -0.063381f},
    {-0.217519f, 0.352630f, 0.000000f, -0.055023f, -0.325389f, -0.502336f, 1.506772f, 0.251877f, -0.887663f, 0.495079f, -0.062688f, -0.202729f, -0.344228f, 0.010502f, -0.184945f, 0.191258f},
    {0.359777f, 0.514845f, -0.000000f, 0.162591f, -0.179582f, 0.488566f, -0.640302f, -0.208934f, 0.046502f, 0.307153f, -0.936125f, 0.281485f, 0.522582f, 0.334579f, 0.445624f, 0.463205f},
    {-0.852507f, -0.167311f, 0.000000f, 0.548735f, -0.485603f, 0.515854f, 1.158678f, 0.342680f, 0.248130f, 0.102487f, 0.215311f, 0.378439f, -0.785338f, 0.522487f, -0.206024f, 0.078325f},
    {0.079002f, -0.640984f, 0.000000f, -0.450566f, -0.014171f, -0.207053f, 0.137183f, -0.373695f, -0.910003f, 1.264320f, 0.496258f, 0.051193f, 0.141418f, -0.007764f, 0.026863f, -0.669117f},
    {-0.717901f, -0.573982f, 0.000000f, -0.609842f, 1.061168f, -0.761249f, 0.194624f, -0.363257f, -0.085780f, 0.328337f, 0.399030f, 0.154477f, -0.419378f, -0.144878f, -0.724936f, 0.128348f},
    {-0.557092f, 0.710231f, -0.000000f, 0.211538f, -1.988665f, 0.497717f, -0.231187f, -0.354514f, 0.000711f, 0.338725f, 0.247157f, -0.337096f, 0.432104f, -0.412078f, 0.639670f, -0.225630f},
    {0.279950f, 0.668509f, -0.000000f, 0.172366f, 0.258760f, 0.572595f, -0.420173f, 0.452746f, 0.316025f, -0.727420f, -0.197439f, -1.054100f, -0.050771f, 0.616399f, 0.313102f, 0.406160f},
    {-0.231489f, 0.047711f, 0.000000f, 0.086069f, 0.769526f, -0.108318f, -0.019230f, -0.290189f, 0.099209f, 0.143434f, -0.077434f, 0.488850f, 0.397296f, 0.392169f, -0.286577f, -0.199294f},
    {0.191560f, 0.191707f, 0.000000f, -0.392271f, -0.161984f, -0.674678f, 0.342138f, 0.421611f, -0.107481f, 0.540398f, 0.872662f, -0.309777f, -0.104857f, -0.249201f, -0.307136f, -0.029129f},
    {-0.016944f, -0.736067f, -0.000003f, 0.806832f, -0.214974f, 0.454683f, 0.790983f, -0.894624f, 0.062527f, 0.617842f, 0.029175f, 0.247280f, -0.625213f, -0.276786f, -0.432140f, 0.349252f},
    {-0.149670f, 0.062823f, 0.000000f, 0.522006f, 0.675803f, 0.254033f, -0.594648f, -0.012092f, -0.968438f, 0.583894f, -0.578933f, 0.117803f, 0.005496f, -0.110271f, -0.567707f, 0.082835f},
    {0.523962f, -0.112918f, -0.000000f, 0.663035f, 0.268348f, 0.609339f, 0.211582f, -1.138662f, -0.147069f, 0.393834f, -0.140897f, 0.295674f, 0.470577f, -0.573704f, -0.113517f, 0.090613f},
    {0.151471f, -0.956533f, 0.000000f, -0.118725f, -0.217473f, -0.284436f, 0.553476f, 1.091117f, 0.808302f, 0.114118f, -0.463833f, 0.365608f, 0.113893f, -0.858936f, -0.096879f, -0.188126f},
    {0.746064f, -1.004412f, -0.000000f, -0.119237f, 0.654713f, -0.001296f, -0.355597f, -0.481498f, 1.152145f, -0.493522f, -0.324613f, 0.679203f, -0.186126f, 0.131119f, 0.680917f, -0.006434f}
};
const float BIAS_L1[L1_OUT] = {0.070454f, 0.605637f, -0.098306f, 0.092916f, -0.023494f, 0.009519f, 1.367523f, 0.167867f, -0.888434f, 0.506666f, -0.103136f, 0.603221f, 0.126981f, 0.308774f, 0.652764f, 0.867290f};

// --- CAPA DE SALIDA (LOGITS) ---
const float WEIGHTS_L2[L2_IN][L2_OUT] = {
    {-0.966988f, -0.741100f, 1.119150f, -0.138833f, -0.096898f, 0.475120f, 0.747884f, 0.573660f, -1.262673f},
    {0.259312f, 0.999289f, -1.595883f, 0.741507f, -0.036895f, 1.343225f, -1.419215f, 0.190043f, -0.539065f},
    {0.000000f, -0.000000f, 0.000000f, 0.000000f, 0.000000f, -0.000000f, -0.000002f, 0.000000f, 0.000000f},
    {0.410739f, -0.088491f, 0.972345f, -2.024164f, 0.732038f, 0.479347f, -0.557794f, 0.038902f, -0.168237f},
    {-0.293137f, -0.169206f, -1.851686f, -0.506134f, 0.396982f, -1.355678f, 1.075869f, 0.703774f, 1.181425f},
    {-0.589031f, 0.930216f, -1.390342f, 0.530029f, -0.499922f, 0.433034f, -0.427412f, 0.502091f, 0.554712f},
    {0.696630f, -0.402830f, 0.531731f, 0.805997f, -0.385482f, -1.658757f, -1.194842f, -1.048662f, 0.510563f},
    {-0.242516f, -2.216901f, -0.972232f, 1.848561f, -0.024105f, -0.704064f, 0.840949f, 0.193095f, 0.782787f},
    {0.608555f, -0.692363f, -2.029591f, 1.252352f, 0.602996f, 0.772393f, -0.464072f, -1.155359f, 1.041407f},
    {-0.540823f, 1.018352f, 0.636150f, -0.141177f, 0.186291f, -0.546243f, -0.171915f, -0.348684f, -1.930914f},
    {0.760773f, 0.553200f, 0.205659f, -1.720545f, -0.022874f, 0.215744f, 0.496838f, -1.621739f, 0.857150f},
    {0.834974f, 0.575061f, -1.512175f, 0.559725f, -1.149983f, -0.011588f, -0.623436f, 0.989732f, -0.483314f},
    {-0.475440f, 1.601700f, -1.132526f, -1.818763f, 0.520194f, 1.240318f, 0.159475f, 0.351639f, -0.293372f},
    {0.527590f, -0.604652f, -1.243470f, 1.166314f, -0.211691f, 0.171315f, 1.008263f, -1.015992f, -0.207505f},
    {-0.255266f, -1.731753f, 0.723784f, 0.466844f, -0.213384f, -0.696610f, 0.500568f, -0.671801f, 1.182766f},
    {-0.021942f, -1.176124f, 0.647899f, 0.434895f, -0.729161f, 0.215716f, 0.608529f, 0.578899f, 0.436752f}
};
const float BIAS_L2[L2_OUT] = {0.066381f, 0.074094f, 0.541081f, 0.199826f, -0.895229f, 0.178830f, 0.671677f, -0.217676f, 0.217754f};